restaring pipeline doesn't clear previous queue count stats

Clone (2) -> Clone (2 outputs)

compare all java nodes to python effects
    /Users/mbennett/Dropbox/dev/webcam-filters
change package name

/fft filter first have 2 outputs
    /also clone node

.lots of "hard coding" in the registry

? grid pattern doesn't change on zoom
    maybe just the dots where they intersect?

cv2.split()

cv2.remap()

cv2.resize()

cv2.watershed()

cv2.HOGDescriptor() + SVM

cv2.applyColorMap()

cv2.ml.KNearest_create()	Classic kNN
cv2.ml.SVM_create()	SVM classifier
cv2.ml.RTrees_create()	Random forest
cv2.ml.EM_create()	Expectation-Maximization clustering
cv2.ml.KMeans2()	Faster KMeans

cv2.warpPerspective()
    cv2.getPerspectiveTransform()

cv2.floodFill() Region filling from a seed pixel.

cv2.distanceTransform() Shows how far each pixel is from the nearest background → great for skeletonization.

cv2.grabCut() Interactive foreground extraction (used in apps like Photoshop).


cv2.calcOpticalFlowPyrLK()	Track feature points between frames

cv2.KalmanFilter()	Predict motion smoothly

cv2.bgsegm (Background subtractors)	Real-time foreground detection

? cv2.xfeatures2d.SIFT_create()	Still excellent (requires contrib)

cv2.TrackerKCF_create()	Single object tracking

cv2.TrackerCSRT_create()	Accurate tracking of deforming objects

cv2.CascadeClassifier()

cv2.pyrDown() / pyrUp()	Gaussian pyramids → multiscale search

cv2.integral()

cv2.goodFeaturesToTrack

cv2.fastNlMeansDenoising()

cv2.pyrMeanShiftFiltering()

cv2.phase() cv2.magnitude()

M = cv2.getPerspectiveTransform(src, dst)
warped = cv2.warpPerspective(img, M, (500,700))

hog = cv2.HOGDescriptor()
hog.setSVMDetector(cv2.HOGDescriptor_getDefaultPeopleDetector())
boxes, _ = hog.detectMultiScale(img)

Histo:
    cv2.equalizeHist(image)
--
Thresh:
    # extract the Value component from the HSV color space and apply adaptive thresholding
    # to reveal the characters on the license plate
    V = cv2.split(cv2.cvtColor(plate, cv2.COLOR_BGR2HSV))[2]
    thresh = cv2.adaptiveThreshold(V, 255, cv2.ADAPTIVE_THRESH_MEAN_C,
	    cv2.THRESH_BINARY_INV, 17, 3)
--
matchTemplate:
    # find the template in the source image
    result = cv2.matchTemplate(source, template, cv2.TM_CCOEFF)
    (minVal, maxVal, minLoc, (x, y)) = cv2.minMaxLoc(result)


.fft low pass filter
    figure out radius filters and smoothness
    can we plot the curve?
.finish impl of Harris Corners
    .still missing some
    .default color green
    /what does Draw Features mean in the python version?
/rename Shi-Tomasi to ... Corners
.    FINISH ST corners
.finish Scharr
/Laplacian shows Canny Edge properties
/   properties too narrow
.   add more UI elements
.Sobel
    .dx / dy 3 horizontal radio buttons
    Sobel Properties -> Sobel Edge Properties
.Contours
.Blobs
check all sliders that require odd ints
Main class doing LOTS of instanceof, I think in serialization stuff?
check all Java Nodes against all Python Effects

.dual input nodes
    .require both queues fire
    .work on either firing and last state of other
        .if both 30 fps there would be ~60 objects emitted
        .make it a UI checkbox for queues-in-sync default to NO

/Node Properties dialog:
    /Enter to click the OK button to save and close and save
    /Esc to cancel and close the dialog and not save
    /If only 1 OK button, than Esc clicks OK
/need bitwise NOT
    doc: same effect as Invert, but diff math, just mention in README
/accuracy of mouse on connection points when zoomed way out
/Histogram node
/maybe not clamp values that are externally edited in JSON
    /"no external clamp"
/button bar green area slightly wider, maybe buttons need more E W padding 
/Unknown node type: Mean Shift Blur
/Unknown node type: Grayscale/Color Convert
/double click on node buttons should only give one
/rename: node title: Mean Shift Blur
/rename: node title: Node Color Convert -> Grayscale/Color Convert
/Box Blur
    /too narrow for 2 or 3 digit readout at end of slider
    /slider lets you pick even ints
    /"unknown: Box Blur"
/Inputs: -> Sources:
/recatogorize Draw: to Content:
/zoom % truncated
/rename: node: Bilateral Filter -> ... Blur
/Unknown Gradient/MorphEx
/TextNode: No "bold" checkbox
/   default color should be green
/Scharr Properties -> Scharr Edge Properties
/fix Hough Lines
/    properties are for Gaussian Blur
/    and should be Unknown if issue deserializing
/fix canny edges --> Gaussian Blur
/grid scrolling
/   magnification/zoom
/Scharr rename to Scharr Edges when node is displayed
/    same for Laplacian
/    Canny EdgeS
/    Sobel EDGES
x Sharr -> Canny edge
